<?xml version="1.0"?>
<opencv_storage>
<cascade>
  <stageType>BOOST</stageType>
  <featureType>HAAR</featureType>
  <height>21</height>
  <width>20</width>
  <stageParams>
    <boostType>GAB</boostType>
    <minHitRate>9.9500000476837158e-01</minHitRate>
    <maxFalseAlarm>5.0000000000000000e-01</maxFalseAlarm>
    <weightTrimRate>9.4999999999999996e-01</weightTrimRate>
    <maxDepth>1</maxDepth>
    <maxWeakCount>100</maxWeakCount></stageParams>
  <featureParams>
    <maxCatCount>0</maxCatCount>
    <featSize>1</featSize>
    <mode>BASIC</mode></featureParams>
  <stageNum>6</stageNum>
  <stages>
    <!-- stage 0 -->
    <_>
      <maxWeakCount>1</maxWeakCount>
      <stageThreshold>1.</stageThreshold>
      <weakClassifiers>
        <_>
          <internalNodes>
            0 -1 1 2.9257178306579590e-01</internalNodes>
          <leafValues>
            -1. 1.</leafValues></_></weakClassifiers></_>
    <!-- stage 1 -->
    <_>
      <maxWeakCount>1</maxWeakCount>
      <stageThreshold>9.6428573131561279e-01</stageThreshold>
      <weakClassifiers>
        <_>
          <internalNodes>
            0 -1 2 -1.5641716122627258e-01</internalNodes>
          <leafValues>
            9.6428573131561279e-01 -1.</leafValues></_></weakClassifiers></_>
    <!-- stage 2 -->
    <_>
      <maxWeakCount>2</maxWeakCount>
      <stageThreshold>-2.8325659036636353e-01</stageThreshold>
      <weakClassifiers>
        <_>
          <internalNodes>
            0 -1 5 -4.1891478002071381e-02</internalNodes>
          <leafValues>
            8.6206895112991333e-01 -9.9552571773529053e-01</leafValues></_>
        <_>
          <internalNodes>
            0 -1 6 -1.5523326396942139e-01</internalNodes>
          <leafValues>
            7.1226912736892700e-01 -9.9504613876342773e-01</leafValues></_></weakClassifiers></_>
    <!-- stage 3 -->
    <_>
      <maxWeakCount>2</maxWeakCount>
      <stageThreshold>-4.1171708703041077e-01</stageThreshold>
      <weakClassifiers>
        <_>
          <internalNodes>
            0 -1 4 -2.3450924456119537e-01</internalNodes>
          <leafValues>
            5.8208954334259033e-01 -9.9086755514144897e-01</leafValues></_>
        <_>
          <internalNodes>
            0 -1 0 -3.8072215393185616e-03</internalNodes>
          <leafValues>
            6.6001451015472412e-01 -9.9380666017532349e-01</leafValues></_></weakClassifiers></_>
    <!-- stage 4 -->
    <_>
      <maxWeakCount>2</maxWeakCount>
      <stageThreshold>-2.5925597548484802e-01</stageThreshold>
      <weakClassifiers>
        <_>
          <internalNodes>
            0 -1 8 6.9386181421577930e-03</internalNodes>
          <leafValues>
            -9.7339248657226563e-01 8.1481480598449707e-01</leafValues></_>
        <_>
          <internalNodes>
            0 -1 7 -6.3822038471698761e-02</internalNodes>
          <leafValues>
            7.1413648128509521e-01 -9.8479473590850830e-01</leafValues></_></weakClassifiers></_>
    <!-- stage 5 -->
    <_>
      <maxWeakCount>1</maxWeakCount>
      <stageThreshold>1.</stageThreshold>
      <weakClassifiers>
        <_>
          <internalNodes>
            0 -1 3 1.1817712336778641e-02</internalNodes>
          <leafValues>
            -1. 1.</leafValues></_></weakClassifiers></_></stages>
  <features>
    <_>
      <rects>
        <_>
          0 0 1 8 -1.</_>
        <_>
          0 4 1 4 2.</_></rects>
      <tilted>0</tilted></_>
    <_>
      <rects>
        <_>
          0 0 11 18 -1.</_>
        <_>
          0 6 11 6 3.</_></rects>
      <tilted>0</tilted></_>
    <_>
      <rects>
        <_>
          0 7 16 14 -1.</_>
        <_>
          0 7 8 7 2.</_>
        <_>
          8 14 8 7 2.</_></rects>
      <tilted>0</tilted></_>
    <_>
      <rects>
        <_>
          0 8 6 6 -1.</_>
        <_>
          0 8 3 3 2.</_>
        <_>
          3 11 3 3 2.</_></rects>
      <tilted>0</tilted></_>
    <_>
      <rects>
        <_>
          3 10 15 8 -1.</_>
        <_>
          3 14 15 4 2.</_></rects>
      <tilted>0</tilted></_>
    <_>
      <rects>
        <_>
          4 11 15 2 -1.</_>
        <_>
          9 11 5 2 3.</_></rects>
      <tilted>0</tilted></_>
    <_>
      <rects>
        <_>
          6 10 12 9 -1.</_>
        <_>
          10 10 4 9 3.</_></rects>
      <tilted>0</tilted></_>
    <_>
      <rects>
        <_>
          7 15 9 6 -1.</_>
        <_>
          7 17 9 2 3.</_></rects>
      <tilted>0</tilted></_>
    <_>
      <rects>
        <_>
          10 7 3 6 -1.</_>
        <_>
          11 7 1 6 3.</_></rects>
      <tilted>0</tilted></_></features></cascade>
</opencv_storage>
